digraph Tree {
node [shape=box] ;
0 [label="X[21] <= -0.807\nentropy = 0.801\nsamples = 156\nvalue = [38, 118]"] ;
1 [label="X[1] <= 0.351\nentropy = 0.868\nsamples = 38\nvalue = [27, 11]"] ;
0 -> 1 [labeldistance=2.5, labelangle=45, headlabel="True"] ;
5 [label="X[20] <= -1.044\nentropy = 0.998\nsamples = 21\nvalue = [10, 11]"] ;
1 -> 5 ;
7 [label="entropy = 0.0\nsamples = 7\nvalue = [7, 0]"] ;
5 -> 7 ;
8 [label="X[16] <= -0.092\nentropy = 0.75\nsamples = 14\nvalue = [3, 11]"] ;
5 -> 8 ;
9 [label="entropy = 0.0\nsamples = 11\nvalue = [0, 11]"] ;
8 -> 9 ;
10 [label="entropy = 0.0\nsamples = 3\nvalue = [3, 0]"] ;
8 -> 10 ;
6 [label="entropy = 0.0\nsamples = 17\nvalue = [17, 0]"] ;
1 -> 6 ;
2 [label="X[12] <= -0.273\nentropy = 0.447\nsamples = 118\nvalue = [11, 107]"] ;
0 -> 2 [labeldistance=2.5, labelangle=-45, headlabel="False"] ;
3 [label="X[0] <= -0.881\nentropy = 0.768\nsamples = 49\nvalue = [11, 38]"] ;
2 -> 3 ;
11 [label="X[0] <= -1.0\nentropy = 0.98\nsamples = 12\nvalue = [7, 5]"] ;
3 -> 11 ;
13 [label="X[16] <= -0.921\nentropy = 0.65\nsamples = 6\nvalue = [1, 5]"] ;
11 -> 13 ;
21 [label="entropy = 0.0\nsamples = 1\nvalue = [1, 0]"] ;
13 -> 21 ;
22 [label="entropy = 0.0\nsamples = 5\nvalue = [0, 5]"] ;
13 -> 22 ;
14 [label="entropy = 0.0\nsamples = 6\nvalue = [6, 0]"] ;
11 -> 14 ;
12 [label="X[13] <= -0.177\nentropy = 0.494\nsamples = 37\nvalue = [4, 33]"] ;
3 -> 12 ;
15 [label="X[15] <= -0.142\nentropy = 0.316\nsamples = 35\nvalue = [2, 33]"] ;
12 -> 15 ;
17 [label="X[16] <= 0.009\nentropy = 0.918\nsamples = 6\nvalue = [2, 4]"] ;
15 -> 17 ;
19 [label="entropy = 0.0\nsamples = 2\nvalue = [2, 0]"] ;
17 -> 19 ;
20 [label="entropy = 0.0\nsamples = 4\nvalue = [0, 4]"] ;
17 -> 20 ;
18 [label="entropy = 0.0\nsamples = 29\nvalue = [0, 29]"] ;
15 -> 18 ;
16 [label="entropy = 0.0\nsamples = 2\nvalue = [2, 0]"] ;
12 -> 16 ;
4 [label="entropy = 0.0\nsamples = 69\nvalue = [0, 69]"] ;
2 -> 4 ;
}